-5.999999865889549255e-02
-5.938099697232246399e-02
-5.872499942779541016e-02
-5.812500044703483582e-02
-5.752499774098396301e-02
-5.692499876022338867e-02
-5.628699809312820435e-02
-5.572500079870223999e-02
-5.512499809265136719e-02
-5.452499911189079285e-02
-5.392499640583992004e-02
-5.330599844455718994e-02
-5.272499844431877136e-02
-5.212499946355819702e-02
-5.152500048279762268e-02
-5.092500150203704834e-02
-5.030599981546401978e-02
-4.972499608993530273e-02
-4.912499710917472839e-02
-4.852499812841415405e-02
-4.775599762797355652e-02
-4.717500135302543640e-02
-4.664999991655349731e-02
-4.612500220537185669e-02
-4.544999822974205017e-02
-4.477499797940254211e-02
-4.417499899864196777e-02
-4.355599731206893921e-02
-4.295599833130836487e-02
-4.237500205636024475e-02
-4.177499562501907349e-02
-4.115600138902664185e-02
-4.055600240826606750e-02
-3.997499868273735046e-02
-3.937499970197677612e-02
-3.877500072121620178e-02
-3.815599903464317322e-02
-3.753700107336044312e-02
-3.697500005364418030e-02
-3.637500107288360596e-02
-3.575599938631057739e-02
-3.515600040555000305e-02
-3.455599769949913025e-02
-3.397500142455101013e-02
-3.337499871850013733e-02
-3.275599703192710876e-02
-3.215599805116653442e-02
-3.153700008988380432e-02
-3.097500093281269073e-02
-3.037499822676181793e-02
-2.975600026547908783e-02
-2.915599942207336426e-02
-2.855600044131278992e-02
-2.804999984800815582e-02
-2.756199985742568970e-02
-2.681200020015239716e-02
-2.615600079298019409e-02
-2.555599808692932129e-02
-2.503099851310253143e-02
-2.450599893927574158e-02
-2.394399791955947876e-02
-2.330599911510944366e-02
-2.270600013434886932e-02
-2.210599929094314575e-02
-2.150599844753742218e-02
-2.090599946677684784e-02
-2.030600048601627350e-02
-1.978099904954433441e-02
-1.897500082850456238e-02
-1.843099854886531830e-02
-1.790599897503852844e-02
-1.738099940121173859e-02
-1.653699949383735657e-02
-1.597499847412109375e-02
-1.543099991977214813e-02
-1.490599941462278366e-02
-1.438099984079599380e-02
-1.355599984526634216e-02
-1.303099934011697769e-02
-1.237499900162220001e-02
-1.183099951595067978e-02
-1.128700003027915955e-02
-1.070600003004074097e-02
-1.018100045621395111e-02
-9.374999441206455231e-03
-8.849999867379665375e-03
-8.344000205397605896e-03
-7.555999793112277985e-03
-6.974999792873859406e-03
-6.431000307202339172e-03
-5.886999890208244324e-03
-5.343999713659286499e-03
-4.536999855190515518e-03
-3.974999766796827316e-03
-3.337000031024217606e-03
-2.755999797955155373e-03
-2.249999903142452240e-03
-1.686999923549592495e-03
-1.143999979831278324e-03
-3.189999843016266823e-04
3.799999831244349480e-05
8.059999672695994377e-04
1.443999935872852802e-03
1.968999858945608139e-03
2.474999986588954926e-03
3.055999753996729851e-03
3.824999788776040077e-03
4.387999884784221649e-03
5.005999468266963959e-03
5.549999885261058807e-03
6.244000047445297241e-03
6.805999670177698135e-03
7.350000087171792984e-03
7.856000214815139771e-03
8.662999607622623444e-03
9.224999696016311646e-03
9.768999181687831879e-03
1.029399968683719635e-02
1.081900019198656082e-02
1.162500027567148209e-02
1.216899976134300232e-02
1.271299924701452255e-02
1.325600035488605499e-02
1.381899882107973099e-02
1.462499983608722687e-02
1.516899932175874710e-02
1.567499898374080658e-02
1.621899940073490143e-02
1.702499948441982269e-02
1.756899990141391754e-02
1.809399947524070740e-02
1.861899904906749725e-02
1.946299895644187927e-02
2.002499997615814209e-02
2.056900039315223694e-02
2.107500098645687103e-02
2.161899954080581665e-02
2.246299944818019867e-02
2.302500046789646149e-02
2.356899902224540710e-02
2.411299943923950195e-02
2.465599961578845978e-02
2.525599859654903412e-02
2.604399807751178741e-02
2.656899951398372650e-02
2.711299806833267212e-02
2.767499908804893494e-02
2.846299856901168823e-02
2.896899916231632233e-02
2.951299771666526794e-02
3.003799915313720703e-02
3.069400042295455933e-02
3.129399940371513367e-02
3.187499940395355225e-02
3.249399736523628235e-02
3.309400007128715515e-02
3.369399905204772949e-02
3.444400057196617126e-02
3.504399955272674561e-02
3.564399853348731995e-02
3.615000098943710327e-02
3.669399768114089966e-02
3.744399920105934143e-02
3.804399818181991577e-02
3.862499818205833435e-02
3.914999961853027344e-02
3.969400003552436829e-02
4.027500003576278687e-02
4.089399799704551697e-02
4.143799841403961182e-02
4.209399968385696411e-02
4.269399866461753845e-02
4.321899637579917908e-02
4.402500018477439880e-02
4.466300085186958313e-02
4.524400085210800171e-02
4.599399864673614502e-02
4.633099958300590515e-02
4.698799923062324524e-02
4.753099754452705383e-02
4.809400066733360291e-02
4.869399964809417725e-02
4.921899735927581787e-02
5.002500116825103760e-02
5.064399912953376770e-02
5.122499912977218628e-02
5.184400081634521484e-02
5.244399979710578918e-02
5.302499607205390930e-02
5.362500250339508057e-02
5.422500148415565491e-02
5.484399572014808655e-02
5.544400215148925781e-02
5.602499842643737793e-02
5.664400011301040649e-02
5.716899782419204712e-02
5.784399807453155518e-02
5.844399705529212952e-02
5.902500078082084656e-02
5.962499976158142090e-02
5.988799780607223511e-02
